<?xml version="1.0" encoding="UTF-8" standalone="yes"?>
<PMML xmlns="http://www.dmg.org/PMML-4_3" version="4.3">
	<Header>
		<Application name="JPMML-XGBoost" version="1.2-SNAPSHOT"/>
		<Timestamp>2018-01-30T05:15:29Z</Timestamp>
	</Header>
	<DataDictionary>
		<DataField name="college_label" optype="categorical" dataType="string">
			<Value value="0"/>
			<Value value="1"/>
		</DataField>
		<DataField name="col_pri_home_dist" optype="continuous" dataType="float"/>
		<DataField name="col_pri_ooh_dist" optype="continuous" dataType="float"/>
		<DataField name="col_sec_home_dist" optype="continuous" dataType="float"/>
		<DataField name="col_sec_ooh_dist" optype="continuous" dataType="float"/>
	</DataDictionary>
	<MiningModel functionName="classification" x-mathContext="float">
		<MiningSchema>
			<MiningField name="college_label" usageType="target"/>
			<MiningField name="col_pri_ooh_dist"/>
			<MiningField name="col_pri_home_dist"/>
			<MiningField name="col_sec_home_dist"/>
			<MiningField name="col_sec_ooh_dist"/>
		</MiningSchema>
		<Segmentation multipleModelMethod="modelChain">
			<Segment id="1">
				<True/>
				<MiningModel functionName="regression" x-mathContext="float">
					<MiningSchema>
						<MiningField name="col_pri_ooh_dist"/>
						<MiningField name="col_pri_home_dist"/>
						<MiningField name="col_sec_home_dist"/>
						<MiningField name="col_sec_ooh_dist"/>
					</MiningSchema>
					<Output>
						<OutputField name="xgbValue" optype="continuous" dataType="float" feature="predictedValue" isFinalResult="false"/>
					</Output>
					<Segmentation multipleModelMethod="sum">
						<Segment id="1">
							<True/>
							<TreeModel functionName="regression" missingValueStrategy="defaultChild" splitCharacteristic="binarySplit" x-mathContext="float">
								<MiningSchema>
									<MiningField name="col_pri_ooh_dist"/>
									<MiningField name="col_sec_ooh_dist"/>
								</MiningSchema>
								<Node id="1" defaultChild="2">
									<True/>
									<Node id="2" defaultChild="4">
										<SimplePredicate field="col_sec_ooh_dist" operator="lessThan" value="676.51154"/>
										<Node id="4" score="0.13464825">
											<SimplePredicate field="col_sec_ooh_dist" operator="lessThan" value="210.34329"/>
										</Node>
										<Node id="5" score="0.008785709">
											<SimplePredicate field="col_sec_ooh_dist" operator="greaterOrEqual" value="210.34329"/>
										</Node>
									</Node>
									<Node id="3" defaultChild="6">
										<SimplePredicate field="col_sec_ooh_dist" operator="greaterOrEqual" value="676.51154"/>
										<Node id="6" score="0.064437844">
											<SimplePredicate field="col_pri_ooh_dist" operator="lessThan" value="476.92783"/>
										</Node>
										<Node id="7" score="-0.18890549">
											<SimplePredicate field="col_pri_ooh_dist" operator="greaterOrEqual" value="476.92783"/>
										</Node>
									</Node>
								</Node>
							</TreeModel>
						</Segment>
						<Segment id="2">
							<True/>
							<TreeModel functionName="regression" missingValueStrategy="defaultChild" splitCharacteristic="binarySplit" x-mathContext="float">
								<MiningSchema>
									<MiningField name="col_pri_ooh_dist"/>
									<MiningField name="col_sec_ooh_dist"/>
								</MiningSchema>
								<Node id="1" defaultChild="2">
									<True/>
									<Node id="2" defaultChild="4">
										<SimplePredicate field="col_sec_ooh_dist" operator="lessThan" value="596.4922"/>
										<Node id="4" score="0.12810418">
											<SimplePredicate field="col_sec_ooh_dist" operator="lessThan" value="177.19058"/>
										</Node>
										<Node id="5" score="0.02233202">
											<SimplePredicate field="col_sec_ooh_dist" operator="greaterOrEqual" value="177.19058"/>
										</Node>
									</Node>
									<Node id="3" defaultChild="6">
										<SimplePredicate field="col_sec_ooh_dist" operator="greaterOrEqual" value="596.4922"/>
										<Node id="6" score="0.025118047">
											<SimplePredicate field="col_pri_ooh_dist" operator="lessThan" value="654.0295"/>
										</Node>
										<Node id="7" score="-0.17177498">
											<SimplePredicate field="col_pri_ooh_dist" operator="greaterOrEqual" value="654.0295"/>
										</Node>
									</Node>
								</Node>
							</TreeModel>
						</Segment>
						<Segment id="3">
							<True/>
							<TreeModel functionName="regression" missingValueStrategy="defaultChild" splitCharacteristic="binarySplit" x-mathContext="float">
								<MiningSchema>
									<MiningField name="col_pri_ooh_dist"/>
									<MiningField name="col_sec_ooh_dist"/>
								</MiningSchema>
								<Node id="1" defaultChild="2">
									<True/>
									<Node id="2" defaultChild="4">
										<SimplePredicate field="col_sec_ooh_dist" operator="lessThan" value="619.7916"/>
										<Node id="4" score="0.10690998">
											<SimplePredicate field="col_sec_ooh_dist" operator="lessThan" value="245.92215"/>
										</Node>
										<Node id="5" score="0.0045504724">
											<SimplePredicate field="col_sec_ooh_dist" operator="greaterOrEqual" value="245.92215"/>
										</Node>
									</Node>
									<Node id="3" defaultChild="6">
										<SimplePredicate field="col_sec_ooh_dist" operator="greaterOrEqual" value="619.7916"/>
										<Node id="6" score="-6.984592E-4">
											<SimplePredicate field="col_pri_ooh_dist" operator="lessThan" value="801.167"/>
										</Node>
										<Node id="7" score="-0.15884236">
											<SimplePredicate field="col_pri_ooh_dist" operator="greaterOrEqual" value="801.167"/>
										</Node>
									</Node>
								</Node>
							</TreeModel>
						</Segment>
						<Segment id="4">
							<True/>
							<TreeModel functionName="regression" missingValueStrategy="defaultChild" splitCharacteristic="binarySplit" x-mathContext="float">
								<MiningSchema>
									<MiningField name="col_pri_ooh_dist"/>
									<MiningField name="col_sec_ooh_dist"/>
								</MiningSchema>
								<Node id="1" defaultChild="2">
									<True/>
									<Node id="2" defaultChild="4">
										<SimplePredicate field="col_sec_ooh_dist" operator="lessThan" value="676.566"/>
										<Node id="4" score="0.09519986">
											<SimplePredicate field="col_sec_ooh_dist" operator="lessThan" value="267.56378"/>
										</Node>
										<Node id="5" score="-0.004053535">
											<SimplePredicate field="col_sec_ooh_dist" operator="greaterOrEqual" value="267.56378"/>
										</Node>
									</Node>
									<Node id="3" defaultChild="6">
										<SimplePredicate field="col_sec_ooh_dist" operator="greaterOrEqual" value="676.566"/>
										<Node id="6" score="0.07641856">
											<SimplePredicate field="col_pri_ooh_dist" operator="lessThan" value="371.0791"/>
										</Node>
										<Node id="7" score="-0.14758092">
											<SimplePredicate field="col_pri_ooh_dist" operator="greaterOrEqual" value="371.0791"/>
										</Node>
									</Node>
								</Node>
							</TreeModel>
						</Segment>
						<Segment id="5">
							<True/>
							<TreeModel functionName="regression" missingValueStrategy="defaultChild" splitCharacteristic="binarySplit" x-mathContext="float">
								<MiningSchema>
									<MiningField name="col_pri_ooh_dist"/>
									<MiningField name="col_sec_ooh_dist"/>
								</MiningSchema>
								<Node id="1" defaultChild="2">
									<True/>
									<Node id="2" defaultChild="4">
										<SimplePredicate field="col_sec_ooh_dist" operator="lessThan" value="759.9469"/>
										<Node id="4" score="0.10611744">
											<SimplePredicate field="col_sec_ooh_dist" operator="lessThan" value="152.08923"/>
										</Node>
										<Node id="5" score="0.0076616206">
											<SimplePredicate field="col_sec_ooh_dist" operator="greaterOrEqual" value="152.08923"/>
										</Node>
									</Node>
									<Node id="3" defaultChild="6">
										<SimplePredicate field="col_sec_ooh_dist" operator="greaterOrEqual" value="759.9469"/>
										<Node id="6" score="-0.01795138">
											<SimplePredicate field="col_pri_ooh_dist" operator="lessThan" value="1093.2349"/>
										</Node>
										<Node id="7" score="-0.1402765">
											<SimplePredicate field="col_pri_ooh_dist" operator="greaterOrEqual" value="1093.2349"/>
										</Node>
									</Node>
								</Node>
							</TreeModel>
						</Segment>
						<Segment id="6">
							<True/>
							<TreeModel functionName="regression" missingValueStrategy="defaultChild" splitCharacteristic="binarySplit" x-mathContext="float">
								<MiningSchema>
									<MiningField name="col_pri_ooh_dist"/>
									<MiningField name="col_sec_ooh_dist"/>
								</MiningSchema>
								<Node id="1" defaultChild="2">
									<True/>
									<Node id="2" defaultChild="4">
										<SimplePredicate field="col_sec_ooh_dist" operator="lessThan" value="595.28394"/>
										<Node id="4" score="0.104104914">
											<SimplePredicate field="col_sec_ooh_dist" operator="lessThan" value="123.77471"/>
										</Node>
										<Node id="5" score="0.021270012">
											<SimplePredicate field="col_sec_ooh_dist" operator="greaterOrEqual" value="123.77471"/>
										</Node>
									</Node>
									<Node id="3" defaultChild="6">
										<SimplePredicate field="col_sec_ooh_dist" operator="greaterOrEqual" value="595.28394"/>
										<Node id="6" score="-0.019553628">
											<SimplePredicate field="col_pri_ooh_dist" operator="lessThan" value="1093.2349"/>
										</Node>
										<Node id="7" score="-0.1329342">
											<SimplePredicate field="col_pri_ooh_dist" operator="greaterOrEqual" value="1093.2349"/>
										</Node>
									</Node>
								</Node>
							</TreeModel>
						</Segment>
						<Segment id="7">
							<True/>
							<TreeModel functionName="regression" missingValueStrategy="defaultChild" splitCharacteristic="binarySplit" x-mathContext="float">
								<MiningSchema>
									<MiningField name="col_pri_ooh_dist"/>
									<MiningField name="col_sec_ooh_dist"/>
								</MiningSchema>
								<Node id="1" defaultChild="2">
									<True/>
									<Node id="2" defaultChild="4">
										<SimplePredicate field="col_sec_ooh_dist" operator="lessThan" value="759.9469"/>
										<Node id="4" score="0.07042914">
											<SimplePredicate field="col_sec_ooh_dist" operator="lessThan" value="330.88843"/>
										</Node>
										<Node id="5" score="-0.01846976">
											<SimplePredicate field="col_sec_ooh_dist" operator="greaterOrEqual" value="330.88843"/>
										</Node>
									</Node>
									<Node id="3" defaultChild="6">
										<SimplePredicate field="col_sec_ooh_dist" operator="greaterOrEqual" value="759.9469"/>
										<Node id="6" score="0.05635665">
											<SimplePredicate field="col_pri_ooh_dist" operator="lessThan" value="478.1908"/>
										</Node>
										<Node id="7" score="-0.1258239">
											<SimplePredicate field="col_pri_ooh_dist" operator="greaterOrEqual" value="478.1908"/>
										</Node>
									</Node>
								</Node>
							</TreeModel>
						</Segment>
						<Segment id="8">
							<True/>
							<TreeModel functionName="regression" missingValueStrategy="defaultChild" splitCharacteristic="binarySplit" x-mathContext="float">
								<MiningSchema>
									<MiningField name="col_pri_ooh_dist"/>
									<MiningField name="col_sec_ooh_dist"/>
								</MiningSchema>
								<Node id="1" defaultChild="2">
									<True/>
									<Node id="2" defaultChild="4">
										<SimplePredicate field="col_sec_ooh_dist" operator="lessThan" value="1110.7468"/>
										<Node id="4" score="0.061861783">
											<SimplePredicate field="col_sec_ooh_dist" operator="lessThan" value="368.36597"/>
										</Node>
										<Node id="5" score="-0.028192634">
											<SimplePredicate field="col_sec_ooh_dist" operator="greaterOrEqual" value="368.36597"/>
										</Node>
									</Node>
									<Node id="3" defaultChild="6">
										<SimplePredicate field="col_sec_ooh_dist" operator="greaterOrEqual" value="1110.7468"/>
										<Node id="6" score="0.059362292">
											<SimplePredicate field="col_pri_ooh_dist" operator="lessThan" value="444.66962"/>
										</Node>
										<Node id="7" score="-0.12117602">
											<SimplePredicate field="col_pri_ooh_dist" operator="greaterOrEqual" value="444.66962"/>
										</Node>
									</Node>
								</Node>
							</TreeModel>
						</Segment>
						<Segment id="9">
							<True/>
							<TreeModel functionName="regression" missingValueStrategy="defaultChild" splitCharacteristic="binarySplit" x-mathContext="float">
								<MiningSchema>
									<MiningField name="col_pri_ooh_dist"/>
									<MiningField name="col_sec_ooh_dist"/>
								</MiningSchema>
								<Node id="1" defaultChild="2">
									<True/>
									<Node id="2" defaultChild="4">
										<SimplePredicate field="col_sec_ooh_dist" operator="lessThan" value="1110.7468"/>
										<Node id="4" score="0.06800071">
											<SimplePredicate field="col_sec_ooh_dist" operator="lessThan" value="245.92215"/>
										</Node>
										<Node id="5" score="-0.015473954">
											<SimplePredicate field="col_sec_ooh_dist" operator="greaterOrEqual" value="245.92215"/>
										</Node>
									</Node>
									<Node id="3" defaultChild="6">
										<SimplePredicate field="col_sec_ooh_dist" operator="greaterOrEqual" value="1110.7468"/>
										<Node id="6" score="0.03382432">
											<SimplePredicate field="col_pri_ooh_dist" operator="lessThan" value="674.8915"/>
										</Node>
										<Node id="7" score="-0.116646044">
											<SimplePredicate field="col_pri_ooh_dist" operator="greaterOrEqual" value="674.8915"/>
										</Node>
									</Node>
								</Node>
							</TreeModel>
						</Segment>
						<Segment id="10">
							<True/>
							<TreeModel functionName="regression" missingValueStrategy="defaultChild" splitCharacteristic="binarySplit" x-mathContext="float">
								<MiningSchema>
									<MiningField name="col_pri_ooh_dist"/>
									<MiningField name="col_sec_ooh_dist"/>
								</MiningSchema>
								<Node id="1" defaultChild="2">
									<True/>
									<Node id="2" defaultChild="4">
										<SimplePredicate field="col_sec_ooh_dist" operator="lessThan" value="1271.7891"/>
										<Node id="4" score="0.05055613">
											<SimplePredicate field="col_sec_ooh_dist" operator="lessThan" value="401.88556"/>
										</Node>
										<Node id="5" score="-0.029256513">
											<SimplePredicate field="col_sec_ooh_dist" operator="greaterOrEqual" value="401.88556"/>
										</Node>
									</Node>
									<Node id="3" defaultChild="6">
										<SimplePredicate field="col_sec_ooh_dist" operator="greaterOrEqual" value="1271.7891"/>
										<Node id="6" score="0.028989827">
											<SimplePredicate field="col_pri_ooh_dist" operator="lessThan" value="714.17096"/>
										</Node>
										<Node id="7" score="-0.11269247">
											<SimplePredicate field="col_pri_ooh_dist" operator="greaterOrEqual" value="714.17096"/>
										</Node>
									</Node>
								</Node>
							</TreeModel>
						</Segment>
						<Segment id="11">
							<True/>
							<TreeModel functionName="regression" missingValueStrategy="defaultChild" splitCharacteristic="binarySplit" x-mathContext="float">
								<MiningSchema>
									<MiningField name="col_pri_ooh_dist"/>
									<MiningField name="col_sec_ooh_dist"/>
								</MiningSchema>
								<Node id="1" defaultChild="2">
									<True/>
									<Node id="2" defaultChild="4">
										<SimplePredicate field="col_sec_ooh_dist" operator="lessThan" value="1275.0894"/>
										<Node id="4" score="0.07788206">
											<SimplePredicate field="col_sec_ooh_dist" operator="lessThan" value="136.51157"/>
										</Node>
										<Node id="5" score="-0.00863103">
											<SimplePredicate field="col_sec_ooh_dist" operator="greaterOrEqual" value="136.51157"/>
										</Node>
									</Node>
									<Node id="3" defaultChild="6">
										<SimplePredicate field="col_sec_ooh_dist" operator="greaterOrEqual" value="1275.0894"/>
										<Node id="6" score="0.080478445">
											<SimplePredicate field="col_pri_ooh_dist" operator="lessThan" value="273.67972"/>
										</Node>
										<Node id="7" score="-0.10828978">
											<SimplePredicate field="col_pri_ooh_dist" operator="greaterOrEqual" value="273.67972"/>
										</Node>
									</Node>
								</Node>
							</TreeModel>
						</Segment>
						<Segment id="12">
							<True/>
							<TreeModel functionName="regression" missingValueStrategy="defaultChild" splitCharacteristic="binarySplit" x-mathContext="float">
								<MiningSchema>
									<MiningField name="col_pri_ooh_dist"/>
									<MiningField name="col_sec_ooh_dist"/>
								</MiningSchema>
								<Node id="1" defaultChild="2">
									<True/>
									<Node id="2" defaultChild="4">
										<SimplePredicate field="col_sec_ooh_dist" operator="lessThan" value="1539.0027"/>
										<Node id="4" score="0.04377797">
											<SimplePredicate field="col_sec_ooh_dist" operator="lessThan" value="401.88556"/>
										</Node>
										<Node id="5" score="-0.029184407">
											<SimplePredicate field="col_sec_ooh_dist" operator="greaterOrEqual" value="401.88556"/>
										</Node>
									</Node>
									<Node id="3" defaultChild="6">
										<SimplePredicate field="col_sec_ooh_dist" operator="greaterOrEqual" value="1539.0027"/>
										<Node id="6" score="0.028435906">
											<SimplePredicate field="col_pri_ooh_dist" operator="lessThan" value="747.0537"/>
										</Node>
										<Node id="7" score="-0.10575049">
											<SimplePredicate field="col_pri_ooh_dist" operator="greaterOrEqual" value="747.0537"/>
										</Node>
									</Node>
								</Node>
							</TreeModel>
						</Segment>
						<Segment id="13">
							<True/>
							<TreeModel functionName="regression" missingValueStrategy="defaultChild" splitCharacteristic="binarySplit" x-mathContext="float">
								<MiningSchema>
									<MiningField name="col_pri_ooh_dist"/>
									<MiningField name="col_sec_ooh_dist"/>
								</MiningSchema>
								<Node id="1" defaultChild="2">
									<True/>
									<Node id="2" defaultChild="4">
										<SimplePredicate field="col_sec_ooh_dist" operator="lessThan" value="1595.5891"/>
										<Node id="4" score="0.06169942">
											<SimplePredicate field="col_sec_ooh_dist" operator="lessThan" value="177.19058"/>
										</Node>
										<Node id="5" score="-0.015307683">
											<SimplePredicate field="col_sec_ooh_dist" operator="greaterOrEqual" value="177.19058"/>
										</Node>
									</Node>
									<Node id="3" defaultChild="6">
										<SimplePredicate field="col_sec_ooh_dist" operator="greaterOrEqual" value="1595.5891"/>
										<Node id="6" score="0.02318691">
											<SimplePredicate field="col_pri_ooh_dist" operator="lessThan" value="800.93506"/>
										</Node>
										<Node id="7" score="-0.10255086">
											<SimplePredicate field="col_pri_ooh_dist" operator="greaterOrEqual" value="800.93506"/>
										</Node>
									</Node>
								</Node>
							</TreeModel>
						</Segment>
						<Segment id="14">
							<True/>
							<TreeModel functionName="regression" missingValueStrategy="defaultChild" splitCharacteristic="binarySplit" x-mathContext="float">
								<MiningSchema>
									<MiningField name="col_pri_ooh_dist"/>
									<MiningField name="col_sec_ooh_dist"/>
								</MiningSchema>
								<Node id="1" defaultChild="2">
									<True/>
									<Node id="2" defaultChild="4">
										<SimplePredicate field="col_sec_ooh_dist" operator="lessThan" value="1595.5891"/>
										<Node id="4" score="0.035004266">
											<SimplePredicate field="col_sec_ooh_dist" operator="lessThan" value="470.8556"/>
										</Node>
										<Node id="5" score="-0.029500712">
											<SimplePredicate field="col_sec_ooh_dist" operator="greaterOrEqual" value="470.8556"/>
										</Node>
									</Node>
									<Node id="3" defaultChild="6">
										<SimplePredicate field="col_sec_ooh_dist" operator="greaterOrEqual" value="1595.5891"/>
										<Node id="6" score="-0.045641925">
											<SimplePredicate field="col_pri_ooh_dist" operator="lessThan" value="3237.103"/>
										</Node>
										<Node id="7" score="-0.10227684">
											<SimplePredicate field="col_pri_ooh_dist" operator="greaterOrEqual" value="3237.103"/>
										</Node>
									</Node>
								</Node>
							</TreeModel>
						</Segment>
						<Segment id="15">
							<True/>
							<TreeModel functionName="regression" missingValueStrategy="defaultChild" splitCharacteristic="binarySplit" x-mathContext="float">
								<MiningSchema>
									<MiningField name="col_pri_ooh_dist"/>
									<MiningField name="col_sec_ooh_dist"/>
								</MiningSchema>
								<Node id="1" defaultChild="2">
									<True/>
									<Node id="2" defaultChild="4">
										<SimplePredicate field="col_pri_ooh_dist" operator="lessThan" value="1505.5098"/>
										<Node id="4" score="0.08761403">
											<SimplePredicate field="col_pri_ooh_dist" operator="lessThan" value="140.6817"/>
										</Node>
										<Node id="5" score="-0.0066229925">
											<SimplePredicate field="col_pri_ooh_dist" operator="greaterOrEqual" value="140.6817"/>
										</Node>
									</Node>
									<Node id="3" defaultChild="6">
										<SimplePredicate field="col_pri_ooh_dist" operator="greaterOrEqual" value="1505.5098"/>
										<Node id="6" score="0.067451455">
											<SimplePredicate field="col_sec_ooh_dist" operator="lessThan" value="157.78435"/>
										</Node>
										<Node id="7" score="-0.09590219">
											<SimplePredicate field="col_sec_ooh_dist" operator="greaterOrEqual" value="157.78435"/>
										</Node>
									</Node>
								</Node>
							</TreeModel>
						</Segment>
						<Segment id="16">
							<True/>
							<TreeModel functionName="regression" missingValueStrategy="defaultChild" splitCharacteristic="binarySplit" x-mathContext="float">
								<MiningSchema>
									<MiningField name="col_pri_ooh_dist"/>
									<MiningField name="col_sec_ooh_dist"/>
								</MiningSchema>
								<Node id="1" defaultChild="2">
									<True/>
									<Node id="2" defaultChild="4">
										<SimplePredicate field="col_pri_ooh_dist" operator="lessThan" value="2178.1716"/>
										<Node id="4" score="0.047632884">
											<SimplePredicate field="col_pri_ooh_dist" operator="lessThan" value="364.37207"/>
										</Node>
										<Node id="5" score="-0.025147235">
											<SimplePredicate field="col_pri_ooh_dist" operator="greaterOrEqual" value="364.37207"/>
										</Node>
									</Node>
									<Node id="3" defaultChild="6">
										<SimplePredicate field="col_pri_ooh_dist" operator="greaterOrEqual" value="2178.1716"/>
										<Node id="6" score="0.050466426">
											<SimplePredicate field="col_sec_ooh_dist" operator="lessThan" value="230.12384"/>
										</Node>
										<Node id="7" score="-0.09440934">
											<SimplePredicate field="col_sec_ooh_dist" operator="greaterOrEqual" value="230.12384"/>
										</Node>
									</Node>
								</Node>
							</TreeModel>
						</Segment>
						<Segment id="17">
							<True/>
							<TreeModel functionName="regression" missingValueStrategy="defaultChild" splitCharacteristic="binarySplit" x-mathContext="float">
								<MiningSchema>
									<MiningField name="col_pri_ooh_dist"/>
									<MiningField name="col_sec_ooh_dist"/>
								</MiningSchema>
								<Node id="1" defaultChild="2">
									<True/>
									<Node id="2" defaultChild="4">
										<SimplePredicate field="col_sec_ooh_dist" operator="lessThan" value="2722.0806"/>
										<Node id="4" score="0.028249396">
											<SimplePredicate field="col_sec_ooh_dist" operator="lessThan" value="494.8318"/>
										</Node>
										<Node id="5" score="-0.031221554">
											<SimplePredicate field="col_sec_ooh_dist" operator="greaterOrEqual" value="494.8318"/>
										</Node>
									</Node>
									<Node id="3" defaultChild="6">
										<SimplePredicate field="col_sec_ooh_dist" operator="greaterOrEqual" value="2722.0806"/>
										<Node id="6" score="0.022625413">
											<SimplePredicate field="col_pri_ooh_dist" operator="lessThan" value="959.0456"/>
										</Node>
										<Node id="7" score="-0.0929757">
											<SimplePredicate field="col_pri_ooh_dist" operator="greaterOrEqual" value="959.0456"/>
										</Node>
									</Node>
								</Node>
							</TreeModel>
						</Segment>
						<Segment id="18">
							<True/>
							<TreeModel functionName="regression" missingValueStrategy="defaultChild" splitCharacteristic="binarySplit" x-mathContext="float">
								<MiningSchema>
									<MiningField name="col_pri_ooh_dist"/>
									<MiningField name="col_sec_ooh_dist"/>
								</MiningSchema>
								<Node id="1" defaultChild="2">
									<True/>
									<Node id="2" defaultChild="4">
										<SimplePredicate field="col_pri_ooh_dist" operator="lessThan" value="2685.7485"/>
										<Node id="4" score="0.06202659">
											<SimplePredicate field="col_pri_ooh_dist" operator="lessThan" value="198.988"/>
										</Node>
										<Node id="5" score="-0.018990017">
											<SimplePredicate field="col_pri_ooh_dist" operator="greaterOrEqual" value="198.988"/>
										</Node>
									</Node>
									<Node id="3" defaultChild="6">
										<SimplePredicate field="col_pri_ooh_dist" operator="greaterOrEqual" value="2685.7485"/>
										<Node id="6" score="-0.049282797">
											<SimplePredicate field="col_sec_ooh_dist" operator="lessThan" value="5586.7046"/>
										</Node>
										<Node id="7" score="-0.09477725">
											<SimplePredicate field="col_sec_ooh_dist" operator="greaterOrEqual" value="5586.7046"/>
										</Node>
									</Node>
								</Node>
							</TreeModel>
						</Segment>
						<Segment id="19">
							<True/>
							<TreeModel functionName="regression" missingValueStrategy="defaultChild" splitCharacteristic="binarySplit" x-mathContext="float">
								<MiningSchema>
									<MiningField name="col_pri_ooh_dist"/>
									<MiningField name="col_sec_ooh_dist"/>
								</MiningSchema>
								<Node id="1" defaultChild="2">
									<True/>
									<Node id="2" defaultChild="4">
										<SimplePredicate field="col_sec_ooh_dist" operator="lessThan" value="3002.2495"/>
										<Node id="4" score="0.0688606">
											<SimplePredicate field="col_sec_ooh_dist" operator="lessThan" value="95.07291"/>
										</Node>
										<Node id="5" score="-0.015583585">
											<SimplePredicate field="col_sec_ooh_dist" operator="greaterOrEqual" value="95.07291"/>
										</Node>
									</Node>
									<Node id="3" defaultChild="6">
										<SimplePredicate field="col_sec_ooh_dist" operator="greaterOrEqual" value="3002.2495"/>
										<Node id="6" score="0.01996134">
											<SimplePredicate field="col_pri_ooh_dist" operator="lessThan" value="959.0456"/>
										</Node>
										<Node id="7" score="-0.08822002">
											<SimplePredicate field="col_pri_ooh_dist" operator="greaterOrEqual" value="959.0456"/>
										</Node>
									</Node>
								</Node>
							</TreeModel>
						</Segment>
						<Segment id="20">
							<True/>
							<TreeModel functionName="regression" missingValueStrategy="defaultChild" splitCharacteristic="binarySplit" x-mathContext="float">
								<MiningSchema>
									<MiningField name="col_pri_ooh_dist"/>
									<MiningField name="col_sec_ooh_dist"/>
								</MiningSchema>
								<Node id="1" defaultChild="2">
									<True/>
									<Node id="2" defaultChild="4">
										<SimplePredicate field="col_pri_ooh_dist" operator="lessThan" value="4176.7383"/>
										<Node id="4" score="0.026473979">
											<SimplePredicate field="col_pri_ooh_dist" operator="lessThan" value="626.46826"/>
										</Node>
										<Node id="5" score="-0.034547564">
											<SimplePredicate field="col_pri_ooh_dist" operator="greaterOrEqual" value="626.46826"/>
										</Node>
									</Node>
									<Node id="3" defaultChild="6">
										<SimplePredicate field="col_pri_ooh_dist" operator="greaterOrEqual" value="4176.7383"/>
										<Node id="6" score="0.015600097">
											<SimplePredicate field="col_sec_ooh_dist" operator="lessThan" value="1018.89215"/>
										</Node>
										<Node id="7" score="-0.08800759">
											<SimplePredicate field="col_sec_ooh_dist" operator="greaterOrEqual" value="1018.89215"/>
										</Node>
									</Node>
								</Node>
							</TreeModel>
						</Segment>
						<Segment id="21">
							<True/>
							<TreeModel functionName="regression" missingValueStrategy="defaultChild" splitCharacteristic="binarySplit" x-mathContext="float">
								<MiningSchema>
									<MiningField name="col_pri_ooh_dist"/>
									<MiningField name="col_sec_ooh_dist"/>
								</MiningSchema>
								<Node id="1" defaultChild="2">
									<True/>
									<Node id="2" defaultChild="4">
										<SimplePredicate field="col_pri_ooh_dist" operator="lessThan" value="4710.199"/>
										<Node id="4" score="0.030590966">
											<SimplePredicate field="col_pri_ooh_dist" operator="lessThan" value="474.9889"/>
										</Node>
										<Node id="5" score="-0.03101025">
											<SimplePredicate field="col_pri_ooh_dist" operator="greaterOrEqual" value="474.9889"/>
										</Node>
									</Node>
									<Node id="3" defaultChild="6">
										<SimplePredicate field="col_pri_ooh_dist" operator="greaterOrEqual" value="4710.199"/>
										<Node id="6" score="0.059310284">
											<SimplePredicate field="col_sec_ooh_dist" operator="lessThan" value="152.31094"/>
										</Node>
										<Node id="7" score="-0.08563244">
											<SimplePredicate field="col_sec_ooh_dist" operator="greaterOrEqual" value="152.31094"/>
										</Node>
									</Node>
								</Node>
							</TreeModel>
						</Segment>
						<Segment id="22">
							<True/>
							<TreeModel functionName="regression" missingValueStrategy="defaultChild" splitCharacteristic="binarySplit" x-mathContext="float">
								<MiningSchema>
									<MiningField name="col_pri_home_dist"/>
									<MiningField name="col_sec_ooh_dist"/>
								</MiningSchema>
								<Node id="1" defaultChild="2">
									<True/>
									<Node id="2" defaultChild="4">
										<SimplePredicate field="col_sec_ooh_dist" operator="lessThan" value="3259.2336"/>
										<Node id="4" score="0.06293952">
											<SimplePredicate field="col_sec_ooh_dist" operator="lessThan" value="95.07291"/>
										</Node>
										<Node id="5" score="-0.012691407">
											<SimplePredicate field="col_sec_ooh_dist" operator="greaterOrEqual" value="95.07291"/>
										</Node>
									</Node>
									<Node id="3" defaultChild="6">
										<SimplePredicate field="col_sec_ooh_dist" operator="greaterOrEqual" value="3259.2336"/>
										<Node id="6" score="-0.0395869">
											<SimplePredicate field="col_pri_home_dist" operator="lessThan" value="5661.209"/>
										</Node>
										<Node id="7" score="-0.08557009">
											<SimplePredicate field="col_pri_home_dist" operator="greaterOrEqual" value="5661.209"/>
										</Node>
									</Node>
								</Node>
							</TreeModel>
						</Segment>
						<Segment id="23">
							<True/>
							<TreeModel functionName="regression" missingValueStrategy="defaultChild" splitCharacteristic="binarySplit" x-mathContext="float">
								<MiningSchema>
									<MiningField name="col_pri_ooh_dist"/>
									<MiningField name="col_sec_ooh_dist"/>
								</MiningSchema>
								<Node id="1" defaultChild="2">
									<True/>
									<Node id="2" defaultChild="4">
										<SimplePredicate field="col_pri_ooh_dist" operator="lessThan" value="4901.633"/>
										<Node id="4" score="0.023004105">
											<SimplePredicate field="col_pri_ooh_dist" operator="lessThan" value="637.6498"/>
										</Node>
										<Node id="5" score="-0.030284107">
											<SimplePredicate field="col_pri_ooh_dist" operator="greaterOrEqual" value="637.6498"/>
										</Node>
									</Node>
									<Node id="3" defaultChild="6">
										<SimplePredicate field="col_pri_ooh_dist" operator="greaterOrEqual" value="4901.633"/>
										<Node id="6" score="0.014205182">
											<SimplePredicate field="col_sec_ooh_dist" operator="lessThan" value="1096.8237"/>
										</Node>
										<Node id="7" score="-0.08190828">
											<SimplePredicate field="col_sec_ooh_dist" operator="greaterOrEqual" value="1096.8237"/>
										</Node>
									</Node>
								</Node>
							</TreeModel>
						</Segment>
						<Segment id="24">
							<True/>
							<TreeModel functionName="regression" missingValueStrategy="defaultChild" splitCharacteristic="binarySplit" x-mathContext="float">
								<MiningSchema>
									<MiningField name="col_pri_ooh_dist"/>
									<MiningField name="col_sec_home_dist"/>
								</MiningSchema>
								<Node id="1" defaultChild="2">
									<True/>
									<Node id="2" defaultChild="4">
										<SimplePredicate field="col_pri_ooh_dist" operator="lessThan" value="4901.633"/>
										<Node id="4" score="0.0665614">
											<SimplePredicate field="col_pri_ooh_dist" operator="lessThan" value="140.6817"/>
										</Node>
										<Node id="5" score="-0.018755823">
											<SimplePredicate field="col_pri_ooh_dist" operator="greaterOrEqual" value="140.6817"/>
										</Node>
									</Node>
									<Node id="3" defaultChild="6">
										<SimplePredicate field="col_pri_ooh_dist" operator="greaterOrEqual" value="4901.633"/>
										<Node id="6" score="-0.058609046">
											<SimplePredicate field="col_sec_home_dist" operator="lessThan" value="16426.912"/>
										</Node>
										<Node id="7" score="-0.090494566">
											<SimplePredicate field="col_sec_home_dist" operator="greaterOrEqual" value="16426.912"/>
										</Node>
									</Node>
								</Node>
							</TreeModel>
						</Segment>
						<Segment id="25">
							<True/>
							<TreeModel functionName="regression" missingValueStrategy="defaultChild" splitCharacteristic="binarySplit" x-mathContext="float">
								<MiningSchema>
									<MiningField name="col_pri_home_dist"/>
									<MiningField name="col_sec_ooh_dist"/>
								</MiningSchema>
								<Node id="1" defaultChild="2">
									<True/>
									<Node id="2" defaultChild="4">
										<SimplePredicate field="col_sec_ooh_dist" operator="lessThan" value="3327.6055"/>
										<Node id="4" score="0.059470177">
											<SimplePredicate field="col_sec_ooh_dist" operator="lessThan" value="95.07291"/>
										</Node>
										<Node id="5" score="-0.0091551915">
											<SimplePredicate field="col_sec_ooh_dist" operator="greaterOrEqual" value="95.07291"/>
										</Node>
									</Node>
									<Node id="3" defaultChild="6">
										<SimplePredicate field="col_sec_ooh_dist" operator="greaterOrEqual" value="3327.6055"/>
										<Node id="6" score="-0.051295068">
											<SimplePredicate field="col_pri_home_dist" operator="lessThan" value="14248.573"/>
										</Node>
										<Node id="7" score="-0.08759072">
											<SimplePredicate field="col_pri_home_dist" operator="greaterOrEqual" value="14248.573"/>
										</Node>
									</Node>
								</Node>
							</TreeModel>
						</Segment>
						<Segment id="26">
							<True/>
							<TreeModel functionName="regression" missingValueStrategy="defaultChild" splitCharacteristic="binarySplit" x-mathContext="float">
								<MiningSchema>
									<MiningField name="col_pri_ooh_dist"/>
									<MiningField name="col_sec_ooh_dist"/>
								</MiningSchema>
								<Node id="1" defaultChild="2">
									<True/>
									<Node id="2" defaultChild="4">
										<SimplePredicate field="col_pri_ooh_dist" operator="lessThan" value="5420.581"/>
										<Node id="4" score="0.021152291">
											<SimplePredicate field="col_pri_ooh_dist" operator="lessThan" value="660.2106"/>
										</Node>
										<Node id="5" score="-0.025961522">
											<SimplePredicate field="col_pri_ooh_dist" operator="greaterOrEqual" value="660.2106"/>
										</Node>
									</Node>
									<Node id="3" defaultChild="6">
										<SimplePredicate field="col_pri_ooh_dist" operator="greaterOrEqual" value="5420.581"/>
										<Node id="6" score="0.016674211">
											<SimplePredicate field="col_sec_ooh_dist" operator="lessThan" value="1235.7185"/>
										</Node>
										<Node id="7" score="-0.07550379">
											<SimplePredicate field="col_sec_ooh_dist" operator="greaterOrEqual" value="1235.7185"/>
										</Node>
									</Node>
								</Node>
							</TreeModel>
						</Segment>
						<Segment id="27">
							<True/>
							<TreeModel functionName="regression" missingValueStrategy="defaultChild" splitCharacteristic="binarySplit" x-mathContext="float">
								<MiningSchema>
									<MiningField name="col_pri_ooh_dist"/>
									<MiningField name="col_sec_home_dist"/>
								</MiningSchema>
								<Node id="1" defaultChild="2">
									<True/>
									<Node id="2" defaultChild="4">
										<SimplePredicate field="col_pri_ooh_dist" operator="lessThan" value="5420.581"/>
										<Node id="4" score="0.0659108">
											<SimplePredicate field="col_pri_ooh_dist" operator="lessThan" value="121.05183"/>
										</Node>
										<Node id="5" score="-0.01523859">
											<SimplePredicate field="col_pri_ooh_dist" operator="greaterOrEqual" value="121.05183"/>
										</Node>
									</Node>
									<Node id="3" defaultChild="6">
										<SimplePredicate field="col_pri_ooh_dist" operator="greaterOrEqual" value="5420.581"/>
										<Node id="6" score="-0.050142117">
											<SimplePredicate field="col_sec_home_dist" operator="lessThan" value="16426.912"/>
										</Node>
										<Node id="7" score="-0.08490836">
											<SimplePredicate field="col_sec_home_dist" operator="greaterOrEqual" value="16426.912"/>
										</Node>
									</Node>
								</Node>
							</TreeModel>
						</Segment>
						<Segment id="28">
							<True/>
							<TreeModel functionName="regression" missingValueStrategy="defaultChild" splitCharacteristic="binarySplit" x-mathContext="float">
								<MiningSchema>
									<MiningField name="col_pri_home_dist"/>
									<MiningField name="col_sec_ooh_dist"/>
								</MiningSchema>
								<Node id="1" defaultChild="2">
									<True/>
									<Node id="2" defaultChild="4">
										<SimplePredicate field="col_sec_ooh_dist" operator="lessThan" value="3090.0317"/>
										<Node id="4" score="0.056058533">
											<SimplePredicate field="col_sec_ooh_dist" operator="lessThan" value="95.07291"/>
										</Node>
										<Node id="5" score="-0.005128415">
											<SimplePredicate field="col_sec_ooh_dist" operator="greaterOrEqual" value="95.07291"/>
										</Node>
									</Node>
									<Node id="3" defaultChild="6">
										<SimplePredicate field="col_sec_ooh_dist" operator="greaterOrEqual" value="3090.0317"/>
										<Node id="6" score="-0.044136338">
											<SimplePredicate field="col_pri_home_dist" operator="lessThan" value="16289.381"/>
										</Node>
										<Node id="7" score="-0.083852984">
											<SimplePredicate field="col_pri_home_dist" operator="greaterOrEqual" value="16289.381"/>
										</Node>
									</Node>
								</Node>
							</TreeModel>
						</Segment>
						<Segment id="29">
							<True/>
							<TreeModel functionName="regression" missingValueStrategy="defaultChild" splitCharacteristic="binarySplit" x-mathContext="float">
								<MiningSchema>
									<MiningField name="col_pri_ooh_dist"/>
									<MiningField name="col_sec_home_dist"/>
								</MiningSchema>
								<Node id="1" defaultChild="2">
									<True/>
									<Node id="2" defaultChild="4">
										<SimplePredicate field="col_pri_ooh_dist" operator="lessThan" value="5627.687"/>
										<Node id="4" score="0.015255952">
											<SimplePredicate field="col_pri_ooh_dist" operator="lessThan" value="1059.4238"/>
										</Node>
										<Node id="5" score="-0.024682049">
											<SimplePredicate field="col_pri_ooh_dist" operator="greaterOrEqual" value="1059.4238"/>
										</Node>
									</Node>
									<Node id="3" defaultChild="6">
										<SimplePredicate field="col_pri_ooh_dist" operator="greaterOrEqual" value="5627.687"/>
										<Node id="6" score="-0.045163106">
											<SimplePredicate field="col_sec_home_dist" operator="lessThan" value="16459.367"/>
										</Node>
										<Node id="7" score="-0.0807332">
											<SimplePredicate field="col_sec_home_dist" operator="greaterOrEqual" value="16459.367"/>
										</Node>
									</Node>
								</Node>
							</TreeModel>
						</Segment>
						<Segment id="30">
							<True/>
							<TreeModel functionName="regression" missingValueStrategy="defaultChild" splitCharacteristic="binarySplit" x-mathContext="float">
								<MiningSchema>
									<MiningField name="col_pri_home_dist"/>
									<MiningField name="col_sec_ooh_dist"/>
								</MiningSchema>
								<Node id="1" defaultChild="2">
									<True/>
									<Node id="2" defaultChild="4">
										<SimplePredicate field="col_sec_ooh_dist" operator="lessThan" value="5586.7046"/>
										<Node id="4" score="0.0150057925">
											<SimplePredicate field="col_sec_ooh_dist" operator="lessThan" value="989.54175"/>
										</Node>
										<Node id="5" score="-0.023127267">
											<SimplePredicate field="col_sec_ooh_dist" operator="greaterOrEqual" value="989.54175"/>
										</Node>
									</Node>
									<Node id="3" defaultChild="6">
										<SimplePredicate field="col_sec_ooh_dist" operator="greaterOrEqual" value="5586.7046"/>
										<Node id="6" score="0.04837605">
											<SimplePredicate field="col_pri_home_dist" operator="lessThan" value="1382.8236"/>
										</Node>
										<Node id="7" score="-0.065408945">
											<SimplePredicate field="col_pri_home_dist" operator="greaterOrEqual" value="1382.8236"/>
										</Node>
									</Node>
								</Node>
							</TreeModel>
						</Segment>
						<Segment id="31">
							<True/>
							<TreeModel functionName="regression" missingValueStrategy="defaultChild" splitCharacteristic="binarySplit" x-mathContext="float">
								<MiningSchema>
									<MiningField name="col_pri_home_dist"/>
									<MiningField name="col_pri_ooh_dist"/>
								</MiningSchema>
								<Node id="1" defaultChild="2">
									<True/>
									<Node id="2" defaultChild="4">
										<SimplePredicate field="col_pri_ooh_dist" operator="lessThan" value="7156.042"/>
										<Node id="4" score="0.06010737">
											<SimplePredicate field="col_pri_ooh_dist" operator="lessThan" value="121.05183"/>
										</Node>
										<Node id="5" score="-0.013608892">
											<SimplePredicate field="col_pri_ooh_dist" operator="greaterOrEqual" value="121.05183"/>
										</Node>
									</Node>
									<Node id="3" defaultChild="6">
										<SimplePredicate field="col_pri_ooh_dist" operator="greaterOrEqual" value="7156.042"/>
										<Node id="6" score="0.30271778">
											<SimplePredicate field="col_pri_home_dist" operator="lessThan" value="738.30676"/>
										</Node>
										<Node id="7" score="-0.06299634">
											<SimplePredicate field="col_pri_home_dist" operator="greaterOrEqual" value="738.30676"/>
										</Node>
									</Node>
								</Node>
							</TreeModel>
						</Segment>
						<Segment id="32">
							<True/>
							<TreeModel functionName="regression" missingValueStrategy="defaultChild" splitCharacteristic="binarySplit" x-mathContext="float">
								<MiningSchema>
									<MiningField name="col_pri_home_dist"/>
									<MiningField name="col_sec_ooh_dist"/>
								</MiningSchema>
								<Node id="1" defaultChild="2">
									<True/>
									<Node id="2" defaultChild="4">
										<SimplePredicate field="col_sec_ooh_dist" operator="lessThan" value="5635.075"/>
										<Node id="4" score="0.019618988">
											<SimplePredicate field="col_sec_ooh_dist" operator="lessThan" value="564.96295"/>
										</Node>
										<Node id="5" score="-0.016949829">
											<SimplePredicate field="col_sec_ooh_dist" operator="greaterOrEqual" value="564.96295"/>
										</Node>
									</Node>
									<Node id="3" defaultChild="6">
										<SimplePredicate field="col_sec_ooh_dist" operator="greaterOrEqual" value="5635.075"/>
										<Node id="6" score="0.037027385">
											<SimplePredicate field="col_pri_home_dist" operator="lessThan" value="1886.9937"/>
										</Node>
										<Node id="7" score="-0.06065122">
											<SimplePredicate field="col_pri_home_dist" operator="greaterOrEqual" value="1886.9937"/>
										</Node>
									</Node>
								</Node>
							</TreeModel>
						</Segment>
						<Segment id="33">
							<True/>
							<TreeModel functionName="regression" missingValueStrategy="defaultChild" splitCharacteristic="binarySplit" x-mathContext="float">
								<MiningSchema>
									<MiningField name="col_pri_home_dist"/>
									<MiningField name="col_pri_ooh_dist"/>
								</MiningSchema>
								<Node id="1" defaultChild="2">
									<True/>
									<Node id="2" defaultChild="4">
										<SimplePredicate field="col_pri_ooh_dist" operator="lessThan" value="9058.449"/>
										<Node id="4" score="0.009693374">
											<SimplePredicate field="col_pri_ooh_dist" operator="lessThan" value="1596.9177"/>
										</Node>
										<Node id="5" score="-0.023855845">
											<SimplePredicate field="col_pri_ooh_dist" operator="greaterOrEqual" value="1596.9177"/>
										</Node>
									</Node>
									<Node id="3" defaultChild="6">
										<SimplePredicate field="col_pri_ooh_dist" operator="greaterOrEqual" value="9058.449"/>
										<Node id="6" score="0.23457499">
											<SimplePredicate field="col_pri_home_dist" operator="lessThan" value="1004.8426"/>
										</Node>
										<Node id="7" score="-0.060750145">
											<SimplePredicate field="col_pri_home_dist" operator="greaterOrEqual" value="1004.8426"/>
										</Node>
									</Node>
								</Node>
							</TreeModel>
						</Segment>
						<Segment id="34">
							<True/>
							<TreeModel functionName="regression" missingValueStrategy="defaultChild" splitCharacteristic="binarySplit" x-mathContext="float">
								<MiningSchema>
									<MiningField name="col_pri_ooh_dist"/>
									<MiningField name="col_sec_home_dist"/>
									<MiningField name="col_sec_ooh_dist"/>
								</MiningSchema>
								<Node id="1" defaultChild="2">
									<True/>
									<Node id="2" defaultChild="4">
										<SimplePredicate field="col_pri_ooh_dist" operator="lessThan" value="14289.035"/>
										<Node id="4" score="0.010775317">
											<SimplePredicate field="col_sec_ooh_dist" operator="lessThan" value="1305.5396"/>
										</Node>
										<Node id="5" score="-0.02428328">
											<SimplePredicate field="col_sec_ooh_dist" operator="greaterOrEqual" value="1305.5396"/>
										</Node>
									</Node>
									<Node id="3" defaultChild="6">
										<SimplePredicate field="col_pri_ooh_dist" operator="greaterOrEqual" value="14289.035"/>
										<Node id="6" score="0.08826581">
											<SimplePredicate field="col_sec_home_dist" operator="lessThan" value="2755.4272"/>
										</Node>
										<Node id="7" score="-0.067819655">
											<SimplePredicate field="col_sec_home_dist" operator="greaterOrEqual" value="2755.4272"/>
										</Node>
									</Node>
								</Node>
							</TreeModel>
						</Segment>
						<Segment id="35">
							<True/>
							<TreeModel functionName="regression" missingValueStrategy="defaultChild" splitCharacteristic="binarySplit" x-mathContext="float">
								<MiningSchema>
									<MiningField name="col_pri_home_dist"/>
									<MiningField name="col_sec_ooh_dist"/>
								</MiningSchema>
								<Node id="1" defaultChild="2">
									<True/>
									<Node id="2" defaultChild="4">
										<SimplePredicate field="col_pri_home_dist" operator="lessThan" value="16289.485"/>
										<Node id="4" score="0.0083732875">
											<SimplePredicate field="col_sec_ooh_dist" operator="lessThan" value="1595.4404"/>
										</Node>
										<Node id="5" score="-0.023664745">
											<SimplePredicate field="col_sec_ooh_dist" operator="greaterOrEqual" value="1595.4404"/>
										</Node>
									</Node>
									<Node id="3" defaultChild="6">
										<SimplePredicate field="col_pri_home_dist" operator="greaterOrEqual" value="16289.485"/>
										<Node id="6" score="0.032057453">
											<SimplePredicate field="col_sec_ooh_dist" operator="lessThan" value="2055.4424"/>
										</Node>
										<Node id="7" score="-0.06986608">
											<SimplePredicate field="col_sec_ooh_dist" operator="greaterOrEqual" value="2055.4424"/>
										</Node>
									</Node>
								</Node>
							</TreeModel>
						</Segment>
						<Segment id="36">
							<True/>
							<TreeModel functionName="regression" missingValueStrategy="defaultChild" splitCharacteristic="binarySplit" x-mathContext="float">
								<MiningSchema>
									<MiningField name="col_pri_home_dist"/>
									<MiningField name="col_pri_ooh_dist"/>
									<MiningField name="col_sec_ooh_dist"/>
								</MiningSchema>
								<Node id="1" defaultChild="2">
									<True/>
									<Node id="2" defaultChild="4">
										<SimplePredicate field="col_pri_home_dist" operator="lessThan" value="16419.36"/>
										<Node id="4" score="0.06839639">
											<SimplePredicate field="col_pri_ooh_dist" operator="lessThan" value="94.27548"/>
										</Node>
										<Node id="5" score="-0.014168267">
											<SimplePredicate field="col_pri_ooh_dist" operator="greaterOrEqual" value="94.27548"/>
										</Node>
									</Node>
									<Node id="3" defaultChild="6">
										<SimplePredicate field="col_pri_home_dist" operator="greaterOrEqual" value="16419.36"/>
										<Node id="6" score="0.025857205">
											<SimplePredicate field="col_sec_ooh_dist" operator="lessThan" value="3000.0085"/>
										</Node>
										<Node id="7" score="-0.06778228">
											<SimplePredicate field="col_sec_ooh_dist" operator="greaterOrEqual" value="3000.0085"/>
										</Node>
									</Node>
								</Node>
							</TreeModel>
						</Segment>
						<Segment id="37">
							<True/>
							<TreeModel functionName="regression" missingValueStrategy="defaultChild" splitCharacteristic="binarySplit" x-mathContext="float">
								<MiningSchema>
									<MiningField name="col_pri_home_dist"/>
									<MiningField name="col_pri_ooh_dist"/>
								</MiningSchema>
								<Node id="1" defaultChild="2">
									<True/>
									<Node id="2" defaultChild="4">
										<SimplePredicate field="col_pri_ooh_dist" operator="lessThan" value="14330.961"/>
										<Node id="4" score="0.009195677">
											<SimplePredicate field="col_pri_ooh_dist" operator="lessThan" value="1596.9177"/>
										</Node>
										<Node id="5" score="-0.020525372">
											<SimplePredicate field="col_pri_ooh_dist" operator="greaterOrEqual" value="1596.9177"/>
										</Node>
									</Node>
									<Node id="3" defaultChild="6">
										<SimplePredicate field="col_pri_ooh_dist" operator="greaterOrEqual" value="14330.961"/>
										<Node id="6" score="0.19656451">
											<SimplePredicate field="col_pri_home_dist" operator="lessThan" value="1372.6338"/>
										</Node>
										<Node id="7" score="-0.059021264">
											<SimplePredicate field="col_pri_home_dist" operator="greaterOrEqual" value="1372.6338"/>
										</Node>
									</Node>
								</Node>
							</TreeModel>
						</Segment>
						<Segment id="38">
							<True/>
							<TreeModel functionName="regression" missingValueStrategy="defaultChild" splitCharacteristic="binarySplit" x-mathContext="float">
								<MiningSchema>
									<MiningField name="col_pri_home_dist"/>
									<MiningField name="col_sec_ooh_dist"/>
								</MiningSchema>
								<Node id="1" defaultChild="2">
									<True/>
									<Node id="2" defaultChild="4">
										<SimplePredicate field="col_pri_home_dist" operator="lessThan" value="17431.318"/>
										<Node id="4" score="0.051067602">
											<SimplePredicate field="col_sec_ooh_dist" operator="lessThan" value="94.30556"/>
										</Node>
										<Node id="5" score="-0.01312761">
											<SimplePredicate field="col_sec_ooh_dist" operator="greaterOrEqual" value="94.30556"/>
										</Node>
									</Node>
									<Node id="3" defaultChild="6">
										<SimplePredicate field="col_pri_home_dist" operator="greaterOrEqual" value="17431.318"/>
										<Node id="6" score="0.032240894">
											<SimplePredicate field="col_sec_ooh_dist" operator="lessThan" value="2055.4424"/>
										</Node>
										<Node id="7" score="-0.06429985">
											<SimplePredicate field="col_sec_ooh_dist" operator="greaterOrEqual" value="2055.4424"/>
										</Node>
									</Node>
								</Node>
							</TreeModel>
						</Segment>
						<Segment id="39">
							<True/>
							<TreeModel functionName="regression" missingValueStrategy="defaultChild" splitCharacteristic="binarySplit" x-mathContext="float">
								<MiningSchema>
									<MiningField name="col_pri_ooh_dist"/>
									<MiningField name="col_sec_home_dist"/>
								</MiningSchema>
								<Node id="1" defaultChild="2">
									<True/>
									<Node id="2" defaultChild="4">
										<SimplePredicate field="col_pri_ooh_dist" operator="lessThan" value="8183.369"/>
										<Node id="4" score="0.06338433">
											<SimplePredicate field="col_pri_ooh_dist" operator="lessThan" value="94.27548"/>
										</Node>
										<Node id="5" score="-0.0059965407">
											<SimplePredicate field="col_pri_ooh_dist" operator="greaterOrEqual" value="94.27548"/>
										</Node>
									</Node>
									<Node id="3" defaultChild="6">
										<SimplePredicate field="col_pri_ooh_dist" operator="greaterOrEqual" value="8183.369"/>
										<Node id="6" score="-0.026919195">
											<SimplePredicate field="col_sec_home_dist" operator="lessThan" value="24073.129"/>
										</Node>
										<Node id="7" score="-0.06862739">
											<SimplePredicate field="col_sec_home_dist" operator="greaterOrEqual" value="24073.129"/>
										</Node>
									</Node>
								</Node>
							</TreeModel>
						</Segment>
						<Segment id="40">
							<True/>
							<TreeModel functionName="regression" missingValueStrategy="defaultChild" splitCharacteristic="binarySplit" x-mathContext="float">
								<MiningSchema>
									<MiningField name="col_pri_home_dist"/>
									<MiningField name="col_sec_ooh_dist"/>
								</MiningSchema>
								<Node id="1" defaultChild="2">
									<True/>
									<Node id="2" defaultChild="4">
										<SimplePredicate field="col_sec_ooh_dist" operator="lessThan" value="5651.547"/>
										<Node id="4" score="0.049135916">
											<SimplePredicate field="col_sec_ooh_dist" operator="lessThan" value="94.30556"/>
										</Node>
										<Node id="5" score="-0.0030800614">
											<SimplePredicate field="col_sec_ooh_dist" operator="greaterOrEqual" value="94.30556"/>
										</Node>
									</Node>
									<Node id="3" defaultChild="6">
										<SimplePredicate field="col_sec_ooh_dist" operator="greaterOrEqual" value="5651.547"/>
										<Node id="6" score="0.046597674">
											<SimplePredicate field="col_pri_home_dist" operator="lessThan" value="1084.248"/>
										</Node>
										<Node id="7" score="-0.04148948">
											<SimplePredicate field="col_pri_home_dist" operator="greaterOrEqual" value="1084.248"/>
										</Node>
									</Node>
								</Node>
							</TreeModel>
						</Segment>
						<Segment id="41">
							<True/>
							<TreeModel functionName="regression" missingValueStrategy="defaultChild" splitCharacteristic="binarySplit" x-mathContext="float">
								<MiningSchema>
									<MiningField name="col_pri_home_dist"/>
									<MiningField name="col_sec_ooh_dist"/>
								</MiningSchema>
								<Node id="1" defaultChild="2">
									<True/>
									<Node id="2" defaultChild="4">
										<SimplePredicate field="col_pri_home_dist" operator="lessThan" value="17772.943"/>
										<Node id="4" score="0.016956128">
											<SimplePredicate field="col_sec_ooh_dist" operator="lessThan" value="470.8556"/>
										</Node>
										<Node id="5" score="-0.012872713">
											<SimplePredicate field="col_sec_ooh_dist" operator="greaterOrEqual" value="470.8556"/>
										</Node>
									</Node>
									<Node id="3" defaultChild="6">
										<SimplePredicate field="col_pri_home_dist" operator="greaterOrEqual" value="17772.943"/>
										<Node id="6" score="0.025181998">
											<SimplePredicate field="col_sec_ooh_dist" operator="lessThan" value="4354.4683"/>
										</Node>
										<Node id="7" score="-0.05860272">
											<SimplePredicate field="col_sec_ooh_dist" operator="greaterOrEqual" value="4354.4683"/>
										</Node>
									</Node>
								</Node>
							</TreeModel>
						</Segment>
						<Segment id="42">
							<True/>
							<TreeModel functionName="regression" missingValueStrategy="defaultChild" splitCharacteristic="binarySplit" x-mathContext="float">
								<MiningSchema>
									<MiningField name="col_pri_home_dist"/>
									<MiningField name="col_pri_ooh_dist"/>
									<MiningField name="col_sec_ooh_dist"/>
								</MiningSchema>
								<Node id="1" defaultChild="2">
									<True/>
									<Node id="2" defaultChild="4">
										<SimplePredicate field="col_pri_home_dist" operator="lessThan" value="17772.943"/>
										<Node id="4" score="0.043591004">
											<SimplePredicate field="col_pri_ooh_dist" operator="lessThan" value="140.6817"/>
										</Node>
										<Node id="5" score="-0.008990894">
											<SimplePredicate field="col_pri_ooh_dist" operator="greaterOrEqual" value="140.6817"/>
										</Node>
									</Node>
									<Node id="3" defaultChild="6">
										<SimplePredicate field="col_pri_home_dist" operator="greaterOrEqual" value="17772.943"/>
										<Node id="6" score="0.01943362">
											<SimplePredicate field="col_sec_ooh_dist" operator="lessThan" value="6676.043"/>
										</Node>
										<Node id="7" score="-0.056241572">
											<SimplePredicate field="col_sec_ooh_dist" operator="greaterOrEqual" value="6676.043"/>
										</Node>
									</Node>
								</Node>
							</TreeModel>
						</Segment>
						<Segment id="43">
							<True/>
							<TreeModel functionName="regression" missingValueStrategy="defaultChild" splitCharacteristic="binarySplit" x-mathContext="float">
								<MiningSchema>
									<MiningField name="col_pri_home_dist"/>
									<MiningField name="col_sec_ooh_dist"/>
								</MiningSchema>
								<Node id="1" defaultChild="2">
									<True/>
									<Node id="2" defaultChild="4">
										<SimplePredicate field="col_pri_home_dist" operator="lessThan" value="19077.184"/>
										<Node id="4" score="0.0068763695">
											<SimplePredicate field="col_sec_ooh_dist" operator="lessThan" value="2504.207"/>
										</Node>
										<Node id="5" score="-0.015688278">
											<SimplePredicate field="col_sec_ooh_dist" operator="greaterOrEqual" value="2504.207"/>
										</Node>
									</Node>
									<Node id="3" defaultChild="6">
										<SimplePredicate field="col_pri_home_dist" operator="greaterOrEqual" value="19077.184"/>
										<Node id="6" score="0.019048624">
											<SimplePredicate field="col_sec_ooh_dist" operator="lessThan" value="6676.043"/>
										</Node>
										<Node id="7" score="-0.055554967">
											<SimplePredicate field="col_sec_ooh_dist" operator="greaterOrEqual" value="6676.043"/>
										</Node>
									</Node>
								</Node>
							</TreeModel>
						</Segment>
						<Segment id="44">
							<True/>
							<TreeModel functionName="regression" missingValueStrategy="defaultChild" splitCharacteristic="binarySplit" x-mathContext="float">
								<MiningSchema>
									<MiningField name="col_pri_home_dist"/>
									<MiningField name="col_sec_home_dist"/>
									<MiningField name="col_sec_ooh_dist"/>
								</MiningSchema>
								<Node id="1" defaultChild="2">
									<True/>
									<Node id="2" defaultChild="4">
										<SimplePredicate field="col_pri_home_dist" operator="lessThan" value="23931.807"/>
										<Node id="4" score="0.04354691">
											<SimplePredicate field="col_sec_ooh_dist" operator="lessThan" value="94.30556"/>
										</Node>
										<Node id="5" score="-0.009164755">
											<SimplePredicate field="col_sec_ooh_dist" operator="greaterOrEqual" value="94.30556"/>
										</Node>
									</Node>
									<Node id="3" defaultChild="6">
										<SimplePredicate field="col_pri_home_dist" operator="greaterOrEqual" value="23931.807"/>
										<Node id="6" score="0.07595111">
											<SimplePredicate field="col_sec_home_dist" operator="lessThan" value="4343.6855"/>
										</Node>
										<Node id="7" score="-0.056858927">
											<SimplePredicate field="col_sec_home_dist" operator="greaterOrEqual" value="4343.6855"/>
										</Node>
									</Node>
								</Node>
							</TreeModel>
						</Segment>
						<Segment id="45">
							<True/>
							<TreeModel functionName="regression" missingValueStrategy="defaultChild" splitCharacteristic="binarySplit" x-mathContext="float">
								<MiningSchema>
									<MiningField name="col_pri_ooh_dist"/>
									<MiningField name="col_sec_home_dist"/>
								</MiningSchema>
								<Node id="1" defaultChild="2">
									<True/>
									<Node id="2" defaultChild="4">
										<SimplePredicate field="col_pri_ooh_dist" operator="lessThan" value="7353.498"/>
										<Node id="4" score="0.06134792">
											<SimplePredicate field="col_pri_ooh_dist" operator="lessThan" value="82.30452"/>
										</Node>
										<Node id="5" score="-0.0017149954">
											<SimplePredicate field="col_pri_ooh_dist" operator="greaterOrEqual" value="82.30452"/>
										</Node>
									</Node>
									<Node id="3" defaultChild="6">
										<SimplePredicate field="col_pri_ooh_dist" operator="greaterOrEqual" value="7353.498"/>
										<Node id="6" score="-0.018132858">
											<SimplePredicate field="col_sec_home_dist" operator="lessThan" value="29515.664"/>
										</Node>
										<Node id="7" score="-0.060413547">
											<SimplePredicate field="col_sec_home_dist" operator="greaterOrEqual" value="29515.664"/>
										</Node>
									</Node>
								</Node>
							</TreeModel>
						</Segment>
						<Segment id="46">
							<True/>
							<TreeModel functionName="regression" missingValueStrategy="defaultChild" splitCharacteristic="binarySplit" x-mathContext="float">
								<MiningSchema>
									<MiningField name="col_pri_ooh_dist"/>
									<MiningField name="col_sec_home_dist"/>
									<MiningField name="col_sec_ooh_dist"/>
								</MiningSchema>
								<Node id="1" defaultChild="2">
									<True/>
									<Node id="2" defaultChild="4">
										<SimplePredicate field="col_pri_ooh_dist" operator="lessThan" value="4176.7383"/>
										<Node id="4" score="0.0011734357">
											<SimplePredicate field="col_sec_ooh_dist" operator="lessThan" value="27191.922"/>
										</Node>
										<Node id="5" score="0.047716923">
											<SimplePredicate field="col_sec_ooh_dist" operator="greaterOrEqual" value="27191.922"/>
										</Node>
									</Node>
									<Node id="3" defaultChild="6">
										<SimplePredicate field="col_pri_ooh_dist" operator="greaterOrEqual" value="4176.7383"/>
										<Node id="6" score="-0.01322282">
											<SimplePredicate field="col_sec_home_dist" operator="lessThan" value="24073.129"/>
										</Node>
										<Node id="7" score="-0.053228617">
											<SimplePredicate field="col_sec_home_dist" operator="greaterOrEqual" value="24073.129"/>
										</Node>
									</Node>
								</Node>
							</TreeModel>
						</Segment>
						<Segment id="47">
							<True/>
							<TreeModel functionName="regression" missingValueStrategy="defaultChild" splitCharacteristic="binarySplit" x-mathContext="float">
								<MiningSchema>
									<MiningField name="col_pri_ooh_dist"/>
									<MiningField name="col_sec_ooh_dist"/>
								</MiningSchema>
								<Node id="1" defaultChild="2">
									<True/>
									<Node id="2" defaultChild="4">
										<SimplePredicate field="col_sec_ooh_dist" operator="lessThan" value="3327.6055"/>
										<Node id="4" score="0.049752165">
											<SimplePredicate field="col_sec_ooh_dist" operator="lessThan" value="69.59662"/>
										</Node>
										<Node id="5" score="0.0025693516">
											<SimplePredicate field="col_sec_ooh_dist" operator="greaterOrEqual" value="69.59662"/>
										</Node>
									</Node>
									<Node id="3" defaultChild="6">
										<SimplePredicate field="col_sec_ooh_dist" operator="greaterOrEqual" value="3327.6055"/>
										<Node id="6" score="0.06016425">
											<SimplePredicate field="col_pri_ooh_dist" operator="lessThan" value="280.4197"/>
										</Node>
										<Node id="7" score="-0.023959585">
											<SimplePredicate field="col_pri_ooh_dist" operator="greaterOrEqual" value="280.4197"/>
										</Node>
									</Node>
								</Node>
							</TreeModel>
						</Segment>
						<Segment id="48">
							<True/>
							<TreeModel functionName="regression" missingValueStrategy="defaultChild" splitCharacteristic="binarySplit" x-mathContext="float">
								<MiningSchema>
									<MiningField name="col_pri_home_dist"/>
									<MiningField name="col_sec_ooh_dist"/>
								</MiningSchema>
								<Node id="1" defaultChild="2">
									<True/>
									<Node id="2" defaultChild="4">
										<SimplePredicate field="col_pri_home_dist" operator="lessThan" value="29528.271"/>
										<Node id="4" score="0.03366386">
											<SimplePredicate field="col_sec_ooh_dist" operator="lessThan" value="117.97214"/>
										</Node>
										<Node id="5" score="-0.0070390753">
											<SimplePredicate field="col_sec_ooh_dist" operator="greaterOrEqual" value="117.97214"/>
										</Node>
									</Node>
									<Node id="3" defaultChild="6">
										<SimplePredicate field="col_pri_home_dist" operator="greaterOrEqual" value="29528.271"/>
										<Node id="6" score="-0.057959866">
											<SimplePredicate field="col_pri_home_dist" operator="lessThan" value="155579.33"/>
										</Node>
										<Node id="7" score="0.053861793">
											<SimplePredicate field="col_pri_home_dist" operator="greaterOrEqual" value="155579.33"/>
										</Node>
									</Node>
								</Node>
							</TreeModel>
						</Segment>
						<Segment id="49">
							<True/>
							<TreeModel functionName="regression" missingValueStrategy="defaultChild" splitCharacteristic="binarySplit" x-mathContext="float">
								<MiningSchema>
									<MiningField name="col_pri_home_dist"/>
									<MiningField name="col_pri_ooh_dist"/>
									<MiningField name="col_sec_home_dist"/>
								</MiningSchema>
								<Node id="1" defaultChild="2">
									<True/>
									<Node id="2" defaultChild="4">
										<SimplePredicate field="col_pri_home_dist" operator="lessThan" value="17198.672"/>
										<Node id="4" score="0.059283">
											<SimplePredicate field="col_pri_ooh_dist" operator="lessThan" value="75.28279"/>
										</Node>
										<Node id="5" score="-0.003672704">
											<SimplePredicate field="col_pri_ooh_dist" operator="greaterOrEqual" value="75.28279"/>
										</Node>
									</Node>
									<Node id="3" defaultChild="6">
										<SimplePredicate field="col_pri_home_dist" operator="greaterOrEqual" value="17198.672"/>
										<Node id="6" score="-0.017530106">
											<SimplePredicate field="col_sec_home_dist" operator="lessThan" value="36273.766"/>
										</Node>
										<Node id="7" score="-0.058783736">
											<SimplePredicate field="col_sec_home_dist" operator="greaterOrEqual" value="36273.766"/>
										</Node>
									</Node>
								</Node>
							</TreeModel>
						</Segment>
						<Segment id="50">
							<True/>
							<TreeModel functionName="regression" missingValueStrategy="defaultChild" splitCharacteristic="binarySplit" x-mathContext="float">
								<MiningSchema>
									<MiningField name="col_pri_ooh_dist"/>
									<MiningField name="col_sec_ooh_dist"/>
								</MiningSchema>
								<Node id="1" defaultChild="2">
									<True/>
									<Node id="2" defaultChild="4">
										<SimplePredicate field="col_sec_ooh_dist" operator="lessThan" value="4826.714"/>
										<Node id="4" score="0.04447738">
											<SimplePredicate field="col_sec_ooh_dist" operator="lessThan" value="68.32599"/>
										</Node>
										<Node id="5" score="0.0017090802">
											<SimplePredicate field="col_sec_ooh_dist" operator="greaterOrEqual" value="68.32599"/>
										</Node>
									</Node>
									<Node id="3" defaultChild="6">
										<SimplePredicate field="col_sec_ooh_dist" operator="greaterOrEqual" value="4826.714"/>
										<Node id="6" score="0.032847613">
											<SimplePredicate field="col_pri_ooh_dist" operator="lessThan" value="1420.0918"/>
										</Node>
										<Node id="7" score="-0.023853084">
											<SimplePredicate field="col_pri_ooh_dist" operator="greaterOrEqual" value="1420.0918"/>
										</Node>
									</Node>
								</Node>
							</TreeModel>
						</Segment>
						<Segment id="51">
							<True/>
							<TreeModel functionName="regression" missingValueStrategy="defaultChild" splitCharacteristic="binarySplit" x-mathContext="float">
								<MiningSchema>
									<MiningField name="col_pri_ooh_dist"/>
									<MiningField name="col_sec_home_dist"/>
								</MiningSchema>
								<Node id="1" defaultChild="2">
									<True/>
									<Node id="2" defaultChild="4">
										<SimplePredicate field="col_sec_home_dist" operator="lessThan" value="9245.613"/>
										<Node id="4" score="0.07656869">
											<SimplePredicate field="col_sec_home_dist" operator="lessThan" value="65.587654"/>
										</Node>
										<Node id="5" score="9.5429004E-4">
											<SimplePredicate field="col_sec_home_dist" operator="greaterOrEqual" value="65.587654"/>
										</Node>
									</Node>
									<Node id="3" defaultChild="6">
										<SimplePredicate field="col_sec_home_dist" operator="greaterOrEqual" value="9245.613"/>
										<Node id="6" score="0.024719385">
											<SimplePredicate field="col_pri_ooh_dist" operator="lessThan" value="1333.0977"/>
										</Node>
										<Node id="7" score="-0.026744867">
											<SimplePredicate field="col_pri_ooh_dist" operator="greaterOrEqual" value="1333.0977"/>
										</Node>
									</Node>
								</Node>
							</TreeModel>
						</Segment>
						<Segment id="52">
							<True/>
							<TreeModel functionName="regression" missingValueStrategy="defaultChild" splitCharacteristic="binarySplit" x-mathContext="float">
								<MiningSchema>
									<MiningField name="col_pri_home_dist"/>
									<MiningField name="col_pri_ooh_dist"/>
								</MiningSchema>
								<Node id="1" defaultChild="2">
									<True/>
									<Node id="2" defaultChild="4">
										<SimplePredicate field="col_pri_home_dist" operator="lessThan" value="29528.271"/>
										<Node id="4" score="-0.0034885313">
											<SimplePredicate field="col_pri_ooh_dist" operator="lessThan" value="47616.414"/>
										</Node>
										<Node id="5" score="0.11136569">
											<SimplePredicate field="col_pri_ooh_dist" operator="greaterOrEqual" value="47616.414"/>
										</Node>
									</Node>
									<Node id="3" defaultChild="6">
										<SimplePredicate field="col_pri_home_dist" operator="greaterOrEqual" value="29528.271"/>
										<Node id="6" score="-0.050617408">
											<SimplePredicate field="col_pri_home_dist" operator="lessThan" value="154727.33"/>
										</Node>
										<Node id="7" score="0.055618502">
											<SimplePredicate field="col_pri_home_dist" operator="greaterOrEqual" value="154727.33"/>
										</Node>
									</Node>
								</Node>
							</TreeModel>
						</Segment>
						<Segment id="53">
							<True/>
							<TreeModel functionName="regression" missingValueStrategy="defaultChild" splitCharacteristic="binarySplit" x-mathContext="float">
								<MiningSchema>
									<MiningField name="col_sec_home_dist"/>
									<MiningField name="col_sec_ooh_dist"/>
								</MiningSchema>
								<Node id="1" defaultChild="2">
									<True/>
									<Node id="2" defaultChild="4">
										<SimplePredicate field="col_sec_ooh_dist" operator="lessThan" value="2167.8125"/>
										<Node id="4" score="0.040643897">
											<SimplePredicate field="col_sec_ooh_dist" operator="lessThan" value="68.30154"/>
										</Node>
										<Node id="5" score="0.0047246995">
											<SimplePredicate field="col_sec_ooh_dist" operator="greaterOrEqual" value="68.30154"/>
										</Node>
									</Node>
									<Node id="3" defaultChild="6">
										<SimplePredicate field="col_sec_ooh_dist" operator="greaterOrEqual" value="2167.8125"/>
										<Node id="6" score="0.23775032">
											<SimplePredicate field="col_sec_home_dist" operator="lessThan" value="154.75055"/>
										</Node>
										<Node id="7" score="-0.013869405">
											<SimplePredicate field="col_sec_home_dist" operator="greaterOrEqual" value="154.75055"/>
										</Node>
									</Node>
								</Node>
							</TreeModel>
						</Segment>
						<Segment id="54">
							<True/>
							<TreeModel functionName="regression" missingValueStrategy="defaultChild" splitCharacteristic="binarySplit" x-mathContext="float">
								<MiningSchema>
									<MiningField name="col_pri_home_dist"/>
									<MiningField name="col_pri_ooh_dist"/>
								</MiningSchema>
								<Node id="1" defaultChild="2">
									<True/>
									<Node id="2" defaultChild="4">
										<SimplePredicate field="col_pri_home_dist" operator="lessThan" value="29528.271"/>
										<Node id="4" score="0.05341444">
											<SimplePredicate field="col_pri_ooh_dist" operator="lessThan" value="75.28279"/>
										</Node>
										<Node id="5" score="-0.003150907">
											<SimplePredicate field="col_pri_ooh_dist" operator="greaterOrEqual" value="75.28279"/>
										</Node>
									</Node>
									<Node id="3" defaultChild="6">
										<SimplePredicate field="col_pri_home_dist" operator="greaterOrEqual" value="29528.271"/>
										<Node id="6" score="-0.04861255">
											<SimplePredicate field="col_pri_home_dist" operator="lessThan" value="127898.64"/>
										</Node>
										<Node id="7" score="0.03872439">
											<SimplePredicate field="col_pri_home_dist" operator="greaterOrEqual" value="127898.64"/>
										</Node>
									</Node>
								</Node>
							</TreeModel>
						</Segment>
						<Segment id="55">
							<True/>
							<TreeModel functionName="regression" missingValueStrategy="defaultChild" splitCharacteristic="binarySplit" x-mathContext="float">
								<MiningSchema>
									<MiningField name="col_pri_ooh_dist"/>
									<MiningField name="col_sec_home_dist"/>
								</MiningSchema>
								<Node id="1" defaultChild="2">
									<True/>
									<Node id="2" defaultChild="4">
										<SimplePredicate field="col_sec_home_dist" operator="lessThan" value="14061.705"/>
										<Node id="4" score="0.06982082">
											<SimplePredicate field="col_sec_home_dist" operator="lessThan" value="65.587654"/>
										</Node>
										<Node id="5" score="3.3673417E-4">
											<SimplePredicate field="col_sec_home_dist" operator="greaterOrEqual" value="65.587654"/>
										</Node>
									</Node>
									<Node id="3" defaultChild="6">
										<SimplePredicate field="col_sec_home_dist" operator="greaterOrEqual" value="14061.705"/>
										<Node id="6" score="0.020022998">
											<SimplePredicate field="col_pri_ooh_dist" operator="lessThan" value="2003.1357"/>
										</Node>
										<Node id="7" score="-0.027413959">
											<SimplePredicate field="col_pri_ooh_dist" operator="greaterOrEqual" value="2003.1357"/>
										</Node>
									</Node>
								</Node>
							</TreeModel>
						</Segment>
						<Segment id="56">
							<True/>
							<TreeModel functionName="regression" missingValueStrategy="defaultChild" splitCharacteristic="binarySplit" x-mathContext="float">
								<MiningSchema>
									<MiningField name="col_pri_home_dist"/>
									<MiningField name="col_pri_ooh_dist"/>
								</MiningSchema>
								<Node id="1" defaultChild="2">
									<True/>
									<Node id="2" defaultChild="4">
										<SimplePredicate field="col_pri_home_dist" operator="lessThan" value="36109.133"/>
										<Node id="4" score="-0.0024540103">
											<SimplePredicate field="col_pri_ooh_dist" operator="lessThan" value="48562.652"/>
										</Node>
										<Node id="5" score="0.09207382">
											<SimplePredicate field="col_pri_ooh_dist" operator="greaterOrEqual" value="48562.652"/>
										</Node>
									</Node>
									<Node id="3" defaultChild="6">
										<SimplePredicate field="col_pri_home_dist" operator="greaterOrEqual" value="36109.133"/>
										<Node id="6" score="-0.053029597">
											<SimplePredicate field="col_pri_home_dist" operator="lessThan" value="121584.5"/>
										</Node>
										<Node id="7" score="0.033167485">
											<SimplePredicate field="col_pri_home_dist" operator="greaterOrEqual" value="121584.5"/>
										</Node>
									</Node>
								</Node>
							</TreeModel>
						</Segment>
						<Segment id="57">
							<True/>
							<TreeModel functionName="regression" missingValueStrategy="defaultChild" splitCharacteristic="binarySplit" x-mathContext="float">
								<MiningSchema>
									<MiningField name="col_pri_ooh_dist"/>
									<MiningField name="col_sec_home_dist"/>
								</MiningSchema>
								<Node id="1" defaultChild="2">
									<True/>
									<Node id="2" defaultChild="4">
										<SimplePredicate field="col_sec_home_dist" operator="lessThan" value="9245.613"/>
										<Node id="4" score="0.001839689">
											<SimplePredicate field="col_pri_ooh_dist" operator="lessThan" value="26417.748"/>
										</Node>
										<Node id="5" score="0.07522219">
											<SimplePredicate field="col_pri_ooh_dist" operator="greaterOrEqual" value="26417.748"/>
										</Node>
									</Node>
									<Node id="3" defaultChild="6">
										<SimplePredicate field="col_sec_home_dist" operator="greaterOrEqual" value="9245.613"/>
										<Node id="6" score="0.039854452">
											<SimplePredicate field="col_pri_ooh_dist" operator="lessThan" value="342.982"/>
										</Node>
										<Node id="7" score="-0.01811306">
											<SimplePredicate field="col_pri_ooh_dist" operator="greaterOrEqual" value="342.982"/>
										</Node>
									</Node>
								</Node>
							</TreeModel>
						</Segment>
						<Segment id="58">
							<True/>
							<TreeModel functionName="regression" missingValueStrategy="defaultChild" splitCharacteristic="binarySplit" x-mathContext="float">
								<MiningSchema>
									<MiningField name="col_pri_home_dist"/>
									<MiningField name="col_pri_ooh_dist"/>
								</MiningSchema>
								<Node id="1" defaultChild="2">
									<True/>
									<Node id="2" defaultChild="4">
										<SimplePredicate field="col_pri_home_dist" operator="lessThan" value="31066.324"/>
										<Node id="4" score="0.05659014">
											<SimplePredicate field="col_pri_ooh_dist" operator="lessThan" value="65.244316"/>
										</Node>
										<Node id="5" score="-0.0019866137">
											<SimplePredicate field="col_pri_ooh_dist" operator="greaterOrEqual" value="65.244316"/>
										</Node>
									</Node>
									<Node id="3" defaultChild="6">
										<SimplePredicate field="col_pri_home_dist" operator="greaterOrEqual" value="31066.324"/>
										<Node id="6" score="-0.039771676">
											<SimplePredicate field="col_pri_ooh_dist" operator="lessThan" value="159033.98"/>
										</Node>
										<Node id="7" score="0.062396944">
											<SimplePredicate field="col_pri_ooh_dist" operator="greaterOrEqual" value="159033.98"/>
										</Node>
									</Node>
								</Node>
							</TreeModel>
						</Segment>
						<Segment id="59">
							<True/>
							<TreeModel functionName="regression" missingValueStrategy="defaultChild" splitCharacteristic="binarySplit" x-mathContext="float">
								<MiningSchema>
									<MiningField name="col_pri_home_dist"/>
									<MiningField name="col_sec_home_dist"/>
									<MiningField name="col_sec_ooh_dist"/>
								</MiningSchema>
								<Node id="1" defaultChild="2">
									<True/>
									<Node id="2" defaultChild="4">
										<SimplePredicate field="col_sec_ooh_dist" operator="lessThan" value="1678.2878"/>
										<Node id="4" score="0.004253779">
											<SimplePredicate field="col_pri_home_dist" operator="lessThan" value="6000.34"/>
										</Node>
										<Node id="5" score="0.031074211">
											<SimplePredicate field="col_pri_home_dist" operator="greaterOrEqual" value="6000.34"/>
										</Node>
									</Node>
									<Node id="3" defaultChild="6">
										<SimplePredicate field="col_sec_ooh_dist" operator="greaterOrEqual" value="1678.2878"/>
										<Node id="6" score="0.22985807">
											<SimplePredicate field="col_sec_home_dist" operator="lessThan" value="140.50136"/>
										</Node>
										<Node id="7" score="-0.009329672">
											<SimplePredicate field="col_sec_home_dist" operator="greaterOrEqual" value="140.50136"/>
										</Node>
									</Node>
								</Node>
							</TreeModel>
						</Segment>
						<Segment id="60">
							<True/>
							<TreeModel functionName="regression" missingValueStrategy="defaultChild" splitCharacteristic="binarySplit" x-mathContext="float">
								<MiningSchema>
									<MiningField name="col_pri_home_dist"/>
									<MiningField name="col_sec_ooh_dist"/>
								</MiningSchema>
								<Node id="1" defaultChild="2">
									<True/>
									<Node id="2" defaultChild="4">
										<SimplePredicate field="col_pri_home_dist" operator="lessThan" value="37138.67"/>
										<Node id="4" score="0.032115888">
											<SimplePredicate field="col_sec_ooh_dist" operator="lessThan" value="82.21303"/>
										</Node>
										<Node id="5" score="-0.0022504625">
											<SimplePredicate field="col_sec_ooh_dist" operator="greaterOrEqual" value="82.21303"/>
										</Node>
									</Node>
									<Node id="3" defaultChild="6">
										<SimplePredicate field="col_pri_home_dist" operator="greaterOrEqual" value="37138.67"/>
										<Node id="6" score="-0.048525948">
											<SimplePredicate field="col_pri_home_dist" operator="lessThan" value="121466.086"/>
										</Node>
										<Node id="7" score="0.02799044">
											<SimplePredicate field="col_pri_home_dist" operator="greaterOrEqual" value="121466.086"/>
										</Node>
									</Node>
								</Node>
							</TreeModel>
						</Segment>
						<Segment id="61">
							<True/>
							<TreeModel functionName="regression" missingValueStrategy="defaultChild" splitCharacteristic="binarySplit" x-mathContext="float">
								<MiningSchema>
									<MiningField name="col_sec_home_dist"/>
									<MiningField name="col_sec_ooh_dist"/>
								</MiningSchema>
								<Node id="1" defaultChild="2">
									<True/>
									<Node id="2" defaultChild="4">
										<SimplePredicate field="col_sec_home_dist" operator="lessThan" value="22702.953"/>
										<Node id="4" score="0.062634416">
											<SimplePredicate field="col_sec_home_dist" operator="lessThan" value="65.587654"/>
										</Node>
										<Node id="5" score="9.797584E-6">
											<SimplePredicate field="col_sec_home_dist" operator="greaterOrEqual" value="65.587654"/>
										</Node>
									</Node>
									<Node id="3" defaultChild="6">
										<SimplePredicate field="col_sec_home_dist" operator="greaterOrEqual" value="22702.953"/>
										<Node id="6" score="-0.028261974">
											<SimplePredicate field="col_sec_ooh_dist" operator="lessThan" value="125684.44"/>
										</Node>
										<Node id="7" score="0.026484856">
											<SimplePredicate field="col_sec_ooh_dist" operator="greaterOrEqual" value="125684.44"/>
										</Node>
									</Node>
								</Node>
							</TreeModel>
						</Segment>
						<Segment id="62">
							<True/>
							<TreeModel functionName="regression" missingValueStrategy="defaultChild" splitCharacteristic="binarySplit" x-mathContext="float">
								<MiningSchema>
									<MiningField name="col_sec_home_dist"/>
									<MiningField name="col_sec_ooh_dist"/>
								</MiningSchema>
								<Node id="1" defaultChild="2">
									<True/>
									<Node id="2" defaultChild="4">
										<SimplePredicate field="col_sec_ooh_dist" operator="lessThan" value="2991.9844"/>
										<Node id="4" score="0.033175256">
											<SimplePredicate field="col_sec_ooh_dist" operator="lessThan" value="68.30154"/>
										</Node>
										<Node id="5" score="0.0035905004">
											<SimplePredicate field="col_sec_ooh_dist" operator="greaterOrEqual" value="68.30154"/>
										</Node>
									</Node>
									<Node id="3" defaultChild="6">
										<SimplePredicate field="col_sec_ooh_dist" operator="greaterOrEqual" value="2991.9844"/>
										<Node id="6" score="0.19664317">
											<SimplePredicate field="col_sec_home_dist" operator="lessThan" value="168.1023"/>
										</Node>
										<Node id="7" score="-0.008859333">
											<SimplePredicate field="col_sec_home_dist" operator="greaterOrEqual" value="168.1023"/>
										</Node>
									</Node>
								</Node>
							</TreeModel>
						</Segment>
						<Segment id="63">
							<True/>
							<TreeModel functionName="regression" missingValueStrategy="defaultChild" splitCharacteristic="binarySplit" x-mathContext="float">
								<MiningSchema>
									<MiningField name="col_pri_home_dist"/>
									<MiningField name="col_pri_ooh_dist"/>
									<MiningField name="col_sec_ooh_dist"/>
								</MiningSchema>
								<Node id="1" defaultChild="2">
									<True/>
									<Node id="2" defaultChild="4">
										<SimplePredicate field="col_pri_home_dist" operator="lessThan" value="37302.664"/>
										<Node id="4" score="-0.0010260518">
											<SimplePredicate field="col_pri_ooh_dist" operator="lessThan" value="48432.895"/>
										</Node>
										<Node id="5" score="0.074379824">
											<SimplePredicate field="col_pri_ooh_dist" operator="greaterOrEqual" value="48432.895"/>
										</Node>
									</Node>
									<Node id="3" defaultChild="6">
										<SimplePredicate field="col_pri_home_dist" operator="greaterOrEqual" value="37302.664"/>
										<Node id="6" score="-0.038094576">
											<SimplePredicate field="col_sec_ooh_dist" operator="lessThan" value="157855.89"/>
										</Node>
										<Node id="7" score="0.06479874">
											<SimplePredicate field="col_sec_ooh_dist" operator="greaterOrEqual" value="157855.89"/>
										</Node>
									</Node>
								</Node>
							</TreeModel>
						</Segment>
						<Segment id="64">
							<True/>
							<TreeModel functionName="regression" missingValueStrategy="defaultChild" splitCharacteristic="binarySplit" x-mathContext="float">
								<MiningSchema>
									<MiningField name="col_pri_ooh_dist"/>
									<MiningField name="col_sec_ooh_dist"/>
								</MiningSchema>
								<Node id="1" defaultChild="2">
									<True/>
									<Node id="2" defaultChild="4">
										<SimplePredicate field="col_pri_ooh_dist" operator="lessThan" value="322.49658"/>
										<Node id="4" score="-0.014421994">
											<SimplePredicate field="col_sec_ooh_dist" operator="lessThan" value="238.51825"/>
										</Node>
										<Node id="5" score="0.037475597">
											<SimplePredicate field="col_sec_ooh_dist" operator="greaterOrEqual" value="238.51825"/>
										</Node>
									</Node>
									<Node id="3" defaultChild="6">
										<SimplePredicate field="col_pri_ooh_dist" operator="greaterOrEqual" value="322.49658"/>
										<Node id="6" score="0.040876534">
											<SimplePredicate field="col_sec_ooh_dist" operator="lessThan" value="170.01636"/>
										</Node>
										<Node id="7" score="-0.006561018">
											<SimplePredicate field="col_sec_ooh_dist" operator="greaterOrEqual" value="170.01636"/>
										</Node>
									</Node>
								</Node>
							</TreeModel>
						</Segment>
						<Segment id="65">
							<True/>
							<TreeModel functionName="regression" missingValueStrategy="defaultChild" splitCharacteristic="binarySplit" x-mathContext="float">
								<MiningSchema>
									<MiningField name="col_pri_home_dist"/>
									<MiningField name="col_sec_home_dist"/>
									<MiningField name="col_sec_ooh_dist"/>
								</MiningSchema>
								<Node id="1" defaultChild="2">
									<True/>
									<Node id="2" defaultChild="4">
										<SimplePredicate field="col_sec_ooh_dist" operator="lessThan" value="126139.92"/>
										<Node id="4" score="-1.2635082E-4">
											<SimplePredicate field="col_sec_home_dist" operator="lessThan" value="45905.438"/>
										</Node>
										<Node id="5" score="-0.037988942">
											<SimplePredicate field="col_sec_home_dist" operator="greaterOrEqual" value="45905.438"/>
										</Node>
									</Node>
									<Node id="3" defaultChild="6">
										<SimplePredicate field="col_sec_ooh_dist" operator="greaterOrEqual" value="126139.92"/>
										<Node id="6" score="0.06523418">
											<SimplePredicate field="col_pri_home_dist" operator="lessThan" value="3065.8574"/>
										</Node>
										<Node id="7" score="-4.3046754E-4">
											<SimplePredicate field="col_pri_home_dist" operator="greaterOrEqual" value="3065.8574"/>
										</Node>
									</Node>
								</Node>
							</TreeModel>
						</Segment>
						<Segment id="66">
							<True/>
							<TreeModel functionName="regression" missingValueStrategy="defaultChild" splitCharacteristic="binarySplit" x-mathContext="float">
								<MiningSchema>
									<MiningField name="col_pri_ooh_dist"/>
									<MiningField name="col_sec_ooh_dist"/>
								</MiningSchema>
								<Node id="1" defaultChild="2">
									<True/>
									<Node id="2" defaultChild="4">
										<SimplePredicate field="col_pri_ooh_dist" operator="lessThan" value="82.30452"/>
										<Node id="4" score="-0.0681121">
											<SimplePredicate field="col_sec_ooh_dist" operator="lessThan" value="84.31024"/>
										</Node>
										<Node id="5" score="0.056670737">
											<SimplePredicate field="col_sec_ooh_dist" operator="greaterOrEqual" value="84.31024"/>
										</Node>
									</Node>
									<Node id="3" defaultChild="6">
										<SimplePredicate field="col_pri_ooh_dist" operator="greaterOrEqual" value="82.30452"/>
										<Node id="6" score="0.032472912">
											<SimplePredicate field="col_sec_ooh_dist" operator="lessThan" value="82.21303"/>
										</Node>
										<Node id="7" score="-0.0035719618">
											<SimplePredicate field="col_sec_ooh_dist" operator="greaterOrEqual" value="82.21303"/>
										</Node>
									</Node>
								</Node>
							</TreeModel>
						</Segment>
						<Segment id="67">
							<True/>
							<TreeModel functionName="regression" missingValueStrategy="defaultChild" splitCharacteristic="binarySplit" x-mathContext="float">
								<MiningSchema>
									<MiningField name="col_pri_home_dist"/>
									<MiningField name="col_sec_ooh_dist"/>
								</MiningSchema>
								<Node id="1" defaultChild="2">
									<True/>
									<Node id="2" defaultChild="4">
										<SimplePredicate field="col_sec_ooh_dist" operator="lessThan" value="6928.3813"/>
										<Node id="4" score="0.069895096">
											<SimplePredicate field="col_pri_home_dist" operator="lessThan" value="46.254333"/>
										</Node>
										<Node id="5" score="0.002906164">
											<SimplePredicate field="col_pri_home_dist" operator="greaterOrEqual" value="46.254333"/>
										</Node>
									</Node>
									<Node id="3" defaultChild="6">
										<SimplePredicate field="col_sec_ooh_dist" operator="greaterOrEqual" value="6928.3813"/>
										<Node id="6" score="0.033920664">
											<SimplePredicate field="col_pri_home_dist" operator="lessThan" value="1957.8593"/>
										</Node>
										<Node id="7" score="-0.013157362">
											<SimplePredicate field="col_pri_home_dist" operator="greaterOrEqual" value="1957.8593"/>
										</Node>
									</Node>
								</Node>
							</TreeModel>
						</Segment>
						<Segment id="68">
							<True/>
							<TreeModel functionName="regression" missingValueStrategy="defaultChild" splitCharacteristic="binarySplit" x-mathContext="float">
								<MiningSchema>
									<MiningField name="col_pri_ooh_dist"/>
									<MiningField name="col_sec_home_dist"/>
									<MiningField name="col_sec_ooh_dist"/>
								</MiningSchema>
								<Node id="1" defaultChild="2">
									<True/>
									<Node id="2" defaultChild="4">
										<SimplePredicate field="col_sec_home_dist" operator="lessThan" value="23371.527"/>
										<Node id="4" score="4.9874384E-4">
											<SimplePredicate field="col_sec_ooh_dist" operator="lessThan" value="41524.363"/>
										</Node>
										<Node id="5" score="0.04021315">
											<SimplePredicate field="col_sec_ooh_dist" operator="greaterOrEqual" value="41524.363"/>
										</Node>
									</Node>
									<Node id="3" defaultChild="6">
										<SimplePredicate field="col_sec_home_dist" operator="greaterOrEqual" value="23371.527"/>
										<Node id="6" score="0.01440191">
											<SimplePredicate field="col_pri_ooh_dist" operator="lessThan" value="3010.3647"/>
										</Node>
										<Node id="7" score="-0.02583612">
											<SimplePredicate field="col_pri_ooh_dist" operator="greaterOrEqual" value="3010.3647"/>
										</Node>
									</Node>
								</Node>
							</TreeModel>
						</Segment>
						<Segment id="69">
							<True/>
							<TreeModel functionName="regression" missingValueStrategy="defaultChild" splitCharacteristic="binarySplit" x-mathContext="float">
								<MiningSchema>
									<MiningField name="col_pri_ooh_dist"/>
									<MiningField name="col_sec_ooh_dist"/>
								</MiningSchema>
								<Node id="1" defaultChild="2">
									<True/>
									<Node id="2" defaultChild="4">
										<SimplePredicate field="col_pri_ooh_dist" operator="lessThan" value="157850.75"/>
										<Node id="4" score="-3.649938E-4">
											<SimplePredicate field="col_pri_ooh_dist" operator="lessThan" value="44184.133"/>
										</Node>
										<Node id="5" score="-0.03863077">
											<SimplePredicate field="col_pri_ooh_dist" operator="greaterOrEqual" value="44184.133"/>
										</Node>
									</Node>
									<Node id="3" defaultChild="6">
										<SimplePredicate field="col_pri_ooh_dist" operator="greaterOrEqual" value="157850.75"/>
										<Node id="6" score="-0.0076547856">
											<SimplePredicate field="col_sec_ooh_dist" operator="lessThan" value="107603.36"/>
										</Node>
										<Node id="7" score="0.12092363">
											<SimplePredicate field="col_sec_ooh_dist" operator="greaterOrEqual" value="107603.36"/>
										</Node>
									</Node>
								</Node>
							</TreeModel>
						</Segment>
						<Segment id="70">
							<True/>
							<TreeModel functionName="regression" missingValueStrategy="defaultChild" splitCharacteristic="binarySplit" x-mathContext="float">
								<MiningSchema>
									<MiningField name="col_pri_home_dist"/>
									<MiningField name="col_pri_ooh_dist"/>
									<MiningField name="col_sec_home_dist"/>
								</MiningSchema>
								<Node id="1" defaultChild="2">
									<True/>
									<Node id="2" defaultChild="4">
										<SimplePredicate field="col_pri_home_dist" operator="lessThan" value="42.3021"/>
										<Node id="4" score="0.05993114">
											<SimplePredicate field="col_pri_ooh_dist" operator="lessThan" value="673.28613"/>
										</Node>
										<Node id="5" score="0.3599206">
											<SimplePredicate field="col_pri_ooh_dist" operator="greaterOrEqual" value="673.28613"/>
										</Node>
									</Node>
									<Node id="3" defaultChild="6">
										<SimplePredicate field="col_pri_home_dist" operator="greaterOrEqual" value="42.3021"/>
										<Node id="6" score="4.5187506E-4">
											<SimplePredicate field="col_sec_home_dist" operator="lessThan" value="37287.32"/>
										</Node>
										<Node id="7" score="-0.016384661">
											<SimplePredicate field="col_sec_home_dist" operator="greaterOrEqual" value="37287.32"/>
										</Node>
									</Node>
								</Node>
							</TreeModel>
						</Segment>
						<Segment id="71">
							<True/>
							<TreeModel functionName="regression" missingValueStrategy="defaultChild" splitCharacteristic="binarySplit" x-mathContext="float">
